digraph Tree {
node [shape=box, style="filled, rounded", color="black", fontname="helvetica"] ;
edge [fontname="helvetica"] ;
0 [label="petal width (cm) <= 0.8\ngini = 0.66\nsamples = 102\nvalue = [56, 51, 43]\nclass = setosa", fillcolor="#fef9f5"] ;
1 [label="gini = 0.0\nsamples = 37\nvalue = [56, 0, 0]\nclass = setosa", fillcolor="#e58139"] ;
0 -> 1 [labeldistance=2.5, labelangle=45, headlabel="True"] ;
2 [label="petal length (cm) <= 4.95\ngini = 0.5\nsamples = 65\nvalue = [0, 51, 43]\nclass = versicolor", fillcolor="#e0fbeb"] ;
0 -> 2 [labeldistance=2.5, labelangle=-45, headlabel="False"] ;
3 [label="petal width (cm) <= 1.6\ngini = 0.17\nsamples = 37\nvalue = [0, 48, 5]\nclass = versicolor", fillcolor="#4ee88e"] ;
2 -> 3 ;
4 [label="gini = 0.0\nsamples = 33\nvalue = [0, 47, 0]\nclass = versicolor", fillcolor="#39e581"] ;
3 -> 4 ;
5 [label="petal width (cm) <= 1.75\ngini = 0.28\nsamples = 4\nvalue = [0, 1, 5]\nclass = virginica", fillcolor="#9a61ea"] ;
3 -> 5 ;
6 [label="gini = 0.0\nsamples = 1\nvalue = [0, 0, 1]\nclass = virginica", fillcolor="#8139e5"] ;
5 -> 6 ;
7 [label="sepal length (cm) <= 5.95\ngini = 0.32\nsamples = 3\nvalue = [0, 1, 4]\nclass = virginica", fillcolor="#a06aec"] ;
5 -> 7 ;
8 [label="gini = 0.0\nsamples = 1\nvalue = [0, 1, 0]\nclass = versicolor", fillcolor="#39e581"] ;
7 -> 8 ;
9 [label="gini = 0.0\nsamples = 2\nvalue = [0, 0, 4]\nclass = virginica", fillcolor="#8139e5"] ;
7 -> 9 ;
10 [label="petal length (cm) <= 5.15\ngini = 0.14\nsamples = 28\nvalue = [0, 3, 38]\nclass = virginica", fillcolor="#8b49e7"] ;
2 -> 10 ;
11 [label="sepal length (cm) <= 6.6\ngini = 0.44\nsamples = 8\nvalue = [0, 3, 6]\nclass = virginica", fillcolor="#c09cf2"] ;
10 -> 11 ;
12 [label="sepal length (cm) <= 6.15\ngini = 0.38\nsamples = 7\nvalue = [0, 2, 6]\nclass = virginica", fillcolor="#ab7bee"] ;
11 -> 12 ;
13 [label="petal width (cm) <= 1.7\ngini = 0.48\nsamples = 4\nvalue = [0, 2, 3]\nclass = virginica", fillcolor="#d5bdf6"] ;
12 -> 13 ;
14 [label="petal width (cm) <= 1.55\ngini = 0.44\nsamples = 2\nvalue = [0, 2, 1]\nclass = versicolor", fillcolor="#9cf2c0"] ;
13 -> 14 ;
15 [label="gini = 0.0\nsamples = 1\nvalue = [0, 0, 1]\nclass = virginica", fillcolor="#8139e5"] ;
14 -> 15 ;
16 [label="gini = 0.0\nsamples = 1\nvalue = [0, 2, 0]\nclass = versicolor", fillcolor="#39e581"] ;
14 -> 16 ;
17 [label="gini = 0.0\nsamples = 2\nvalue = [0, 0, 2]\nclass = virginica", fillcolor="#8139e5"] ;
13 -> 17 ;
18 [label="gini = 0.0\nsamples = 3\nvalue = [0, 0, 3]\nclass = virginica", fillcolor="#8139e5"] ;
12 -> 18 ;
19 [label="gini = 0.0\nsamples = 1\nvalue = [0, 1, 0]\nclass = versicolor", fillcolor="#39e581"] ;
11 -> 19 ;
20 [label="gini = 0.0\nsamples = 20\nvalue = [0, 0, 32]\nclass = virginica", fillcolor="#8139e5"] ;
10 -> 20 ;
}